FANN_FLO_2.1
num_layers=3
learning_rate=0.010000
connection_rate=1.000000
network_type=0
learning_momentum=0.000000
training_algorithm=0
train_error_function=1
train_stop_function=0
cascade_output_change_fraction=0.010000
quickprop_decay=-0.000100
quickprop_mu=1.750000
rprop_increase_factor=1.200000
rprop_decrease_factor=0.500000
rprop_delta_min=0.000000
rprop_delta_max=50.000000
rprop_delta_zero=0.100000
cascade_output_stagnation_epochs=12
cascade_candidate_change_fraction=0.010000
cascade_candidate_stagnation_epochs=12
cascade_max_out_epochs=150
cascade_min_out_epochs=50
cascade_max_cand_epochs=150
cascade_min_cand_epochs=50
cascade_num_candidate_groups=2
bit_fail_limit=3.49999994039535522461e-01
cascade_candidate_limit=1.00000000000000000000e+03
cascade_weight_multiplier=4.00000005960464477539e-01
cascade_activation_functions_count=10
cascade_activation_functions=3 5 7 8 10 11 14 15 16 17 
cascade_activation_steepnesses_count=4
cascade_activation_steepnesses=2.50000000000000000000e-01 5.00000000000000000000e-01 7.50000000000000000000e-01 1.00000000000000000000e+00 
layer_sizes=2 11 2 
scale_included=0
neurons (num_inputs, activation_function, activation_steepness)=(0, 0, 0.00000000000000000000e+00) (0, 0, 0.00000000000000000000e+00) (2, 5, 5.00000000000000000000e-01) (2, 5, 5.00000000000000000000e-01) (2, 5, 5.00000000000000000000e-01) (2, 5, 5.00000000000000000000e-01) (2, 5, 5.00000000000000000000e-01) (2, 5, 5.00000000000000000000e-01) (2, 5, 5.00000000000000000000e-01) (2, 5, 5.00000000000000000000e-01) (2, 5, 5.00000000000000000000e-01) (2, 5, 5.00000000000000000000e-01) (0, 5, 0.00000000000000000000e+00) (11, 0, 5.00000000000000000000e-01) (0, 0, 0.00000000000000000000e+00) 
connections (connected_to_neuron, weight)=(0, -5.93606412410736083984e-01) (1, -3.92509073019027709961e-01) (0, 1.02656984329223632812e+00) (1, 1.02634060382843017578e+00) (0, -2.22928598523139953613e-01) (1, 2.86777466535568237305e-01) (0, -1.26451551914215087891e-01) (1, 5.46693801879882812500e-01) (0, -7.90108263492584228516e-01) (1, -6.78312182426452636719e-01) (0, 5.35377025604248046875e-01) (1, 2.90884017944335937500e-01) (0, -2.89487099647521972656e+00) (1, -2.95154142379760742188e+00) (0, 6.99146568775177001953e-01) (1, 5.50097644329071044922e-01) (0, 3.94674229621887207031e+00) (1, -4.34115552902221679688e+00) (0, 4.72915798425674438477e-01) (1, 1.91775292158126831055e-01) (2, -1.90186953544616699219e+00) (3, 1.81867766380310058594e+00) (4, -1.79927539825439453125e+00) (5, -2.30207896232604980469e+00) (6, -1.07593917846679687500e+00) (7, 9.62552368640899658203e-01) (8, -2.92826175689697265625e+00) (9, 1.20461463928222656250e+00) (10, 4.05083084106445312500e+00) (11, 1.15333020687103271484e+00) (12, 7.91339948773384094238e-02) 
