FANN_FLO_2.1
num_layers=3
learning_rate=0.010000
connection_rate=1.000000
network_type=0
learning_momentum=0.000000
training_algorithm=0
train_error_function=1
train_stop_function=0
cascade_output_change_fraction=0.010000
quickprop_decay=-0.000100
quickprop_mu=1.750000
rprop_increase_factor=1.200000
rprop_decrease_factor=0.500000
rprop_delta_min=0.000000
rprop_delta_max=50.000000
rprop_delta_zero=0.100000
cascade_output_stagnation_epochs=12
cascade_candidate_change_fraction=0.010000
cascade_candidate_stagnation_epochs=12
cascade_max_out_epochs=150
cascade_min_out_epochs=50
cascade_max_cand_epochs=150
cascade_min_cand_epochs=50
cascade_num_candidate_groups=2
bit_fail_limit=3.49999994039535522461e-01
cascade_candidate_limit=1.00000000000000000000e+03
cascade_weight_multiplier=4.00000005960464477539e-01
cascade_activation_functions_count=10
cascade_activation_functions=3 5 7 8 10 11 14 15 16 17 
cascade_activation_steepnesses_count=4
cascade_activation_steepnesses=2.50000000000000000000e-01 5.00000000000000000000e-01 7.50000000000000000000e-01 1.00000000000000000000e+00 
layer_sizes=2 11 2 
scale_included=0
neurons (num_inputs, activation_function, activation_steepness)=(0, 0, 0.00000000000000000000e+00) (0, 0, 0.00000000000000000000e+00) (2, 14, 5.00000000000000000000e-01) (2, 14, 5.00000000000000000000e-01) (2, 14, 5.00000000000000000000e-01) (2, 14, 5.00000000000000000000e-01) (2, 14, 5.00000000000000000000e-01) (2, 14, 5.00000000000000000000e-01) (2, 14, 5.00000000000000000000e-01) (2, 14, 5.00000000000000000000e-01) (2, 14, 5.00000000000000000000e-01) (2, 14, 5.00000000000000000000e-01) (0, 14, 0.00000000000000000000e+00) (11, 0, 5.00000000000000000000e-01) (0, 0, 0.00000000000000000000e+00) 
connections (connected_to_neuron, weight)=(0, -6.61860883235931396484e-01) (1, -5.63729442656040191650e-02) (0, -5.63698530197143554688e-01) (1, 1.48958237841725349426e-02) (0, -6.10261201858520507812e-01) (1, 9.14968922734260559082e-02) (0, -5.13206899166107177734e-01) (1, 1.65458377450704574585e-02) (0, -8.81073176860809326172e-01) (1, 3.61868552863597869873e-02) (0, 9.07522737979888916016e-01) (1, 3.46323810517787933350e-02) (0, 3.65662366151809692383e-01) (1, 9.20950919389724731445e-02) (0, 1.96787014603614807129e-01) (1, -9.53941494226455688477e-02) (0, 5.72588920593261718750e-01) (1, -1.51962283998727798462e-02) (0, -2.96237140893936157227e-01) (1, -2.31590662151575088501e-02) (2, -6.73177540302276611328e-01) (3, -5.78710317611694335938e-01) (4, -6.22533082962036132812e-01) (5, -5.10828673839569091797e-01) (6, -9.07087504863739013672e-01) (7, 9.40298676490783691406e-01) (8, 3.62159937620162963867e-01) (9, 1.93165704607963562012e-01) (10, 5.72968602180480957031e-01) (11, -3.05097520351409912109e-01) (12, 9.94161050766706466675e-03) 
