FANN_FLO_2.1
num_layers=3
learning_rate=0.010000
connection_rate=1.000000
network_type=0
learning_momentum=0.000000
training_algorithm=0
train_error_function=1
train_stop_function=0
cascade_output_change_fraction=0.010000
quickprop_decay=-0.000100
quickprop_mu=1.750000
rprop_increase_factor=1.200000
rprop_decrease_factor=0.500000
rprop_delta_min=0.000000
rprop_delta_max=50.000000
rprop_delta_zero=0.100000
cascade_output_stagnation_epochs=12
cascade_candidate_change_fraction=0.010000
cascade_candidate_stagnation_epochs=12
cascade_max_out_epochs=150
cascade_min_out_epochs=50
cascade_max_cand_epochs=150
cascade_min_cand_epochs=50
cascade_num_candidate_groups=2
bit_fail_limit=3.49999994039535522461e-01
cascade_candidate_limit=1.00000000000000000000e+03
cascade_weight_multiplier=4.00000005960464477539e-01
cascade_activation_functions_count=10
cascade_activation_functions=3 5 7 8 10 11 14 15 16 17 
cascade_activation_steepnesses_count=4
cascade_activation_steepnesses=2.50000000000000000000e-01 5.00000000000000000000e-01 7.50000000000000000000e-01 1.00000000000000000000e+00 
layer_sizes=2 11 2 
scale_included=0
neurons (num_inputs, activation_function, activation_steepness)=(0, 0, 0.00000000000000000000e+00) (0, 0, 0.00000000000000000000e+00) (2, 3, 5.00000000000000000000e-01) (2, 3, 5.00000000000000000000e-01) (2, 3, 5.00000000000000000000e-01) (2, 3, 5.00000000000000000000e-01) (2, 3, 5.00000000000000000000e-01) (2, 3, 5.00000000000000000000e-01) (2, 3, 5.00000000000000000000e-01) (2, 3, 5.00000000000000000000e-01) (2, 3, 5.00000000000000000000e-01) (2, 3, 5.00000000000000000000e-01) (0, 3, 0.00000000000000000000e+00) (11, 0, 5.00000000000000000000e-01) (0, 0, 0.00000000000000000000e+00) 
connections (connected_to_neuron, weight)=(0, 5.86443603038787841797e-01) (1, -2.35598310828208923340e-01) (0, 6.93199396133422851562e-01) (1, -1.11991107463836669922e+00) (0, -8.19066107273101806641e-01) (1, -7.53476977348327636719e-01) (0, 5.45751452445983886719e-01) (1, -3.93963843584060668945e-01) (0, 5.86232841014862060547e-01) (1, -6.69220760464668273926e-02) (0, 1.51785349845886230469e+00) (1, -2.01229453086853027344e+00) (0, -1.99853575229644775391e+00) (1, 2.32734060287475585938e+00) (0, 2.04549431800842285156e+00) (1, 2.04759526252746582031e+00) (0, 5.56829154491424560547e-01) (1, -3.82908254861831665039e-01) (0, 5.58364272117614746094e-01) (1, -2.95430123805999755859e-01) (2, 1.57352745532989501953e+00) (3, 2.87607359886169433594e+00) (4, -3.87234187126159667969e+00) (5, 2.89298892021179199219e+00) (6, 1.97649991512298583984e+00) (7, 3.48291826248168945312e+00) (8, -5.41870021820068359375e+00) (9, 4.41321754455566406250e+00) (10, 2.42919087409973144531e+00) (11, 2.41026306152343750000e+00) (12, -3.77838516235351562500e+00) 
