FANN_FLO_2.1
num_layers=3
learning_rate=0.010000
connection_rate=1.000000
network_type=0
learning_momentum=0.000000
training_algorithm=0
train_error_function=1
train_stop_function=0
cascade_output_change_fraction=0.010000
quickprop_decay=-0.000100
quickprop_mu=1.750000
rprop_increase_factor=1.200000
rprop_decrease_factor=0.500000
rprop_delta_min=0.000000
rprop_delta_max=50.000000
rprop_delta_zero=0.100000
cascade_output_stagnation_epochs=12
cascade_candidate_change_fraction=0.010000
cascade_candidate_stagnation_epochs=12
cascade_max_out_epochs=150
cascade_min_out_epochs=50
cascade_max_cand_epochs=150
cascade_min_cand_epochs=50
cascade_num_candidate_groups=2
bit_fail_limit=3.49999994039535522461e-01
cascade_candidate_limit=1.00000000000000000000e+03
cascade_weight_multiplier=4.00000005960464477539e-01
cascade_activation_functions_count=10
cascade_activation_functions=3 5 7 8 10 11 14 15 16 17 
cascade_activation_steepnesses_count=4
cascade_activation_steepnesses=2.50000000000000000000e-01 5.00000000000000000000e-01 7.50000000000000000000e-01 1.00000000000000000000e+00 
layer_sizes=2 11 2 
scale_included=0
neurons (num_inputs, activation_function, activation_steepness)=(0, 0, 0.00000000000000000000e+00) (0, 0, 0.00000000000000000000e+00) (2, 5, 5.00000000000000000000e-01) (2, 5, 5.00000000000000000000e-01) (2, 5, 5.00000000000000000000e-01) (2, 5, 5.00000000000000000000e-01) (2, 5, 5.00000000000000000000e-01) (2, 5, 5.00000000000000000000e-01) (2, 5, 5.00000000000000000000e-01) (2, 5, 5.00000000000000000000e-01) (2, 5, 5.00000000000000000000e-01) (2, 5, 5.00000000000000000000e-01) (0, 5, 0.00000000000000000000e+00) (11, 0, 5.00000000000000000000e-01) (0, 0, 0.00000000000000000000e+00) 
connections (connected_to_neuron, weight)=(0, -1.59661340713500976562e+00) (1, -2.76266038417816162109e-02) (0, 1.28070783615112304688e+00) (1, -4.38619777560234069824e-03) (0, 2.15278223156929016113e-01) (1, -3.78777831792831420898e-02) (0, 9.57527235150337219238e-02) (1, 4.95741851627826690674e-02) (0, -2.40710645914077758789e-01) (1, 2.46394686400890350342e-02) (0, -4.97607626020908355713e-02) (1, 6.34093908593058586121e-03) (0, -6.81981071829795837402e-02) (1, -4.85520437359809875488e-02) (0, 1.09219920635223388672e+00) (1, -9.53101739287376403809e-03) (0, -4.25097793340682983398e-01) (1, 1.00568465888500213623e-01) (0, -9.40149575471878051758e-02) (1, 3.04416865110397338867e-02) (2, -1.04968094825744628906e+00) (3, 8.74505400657653808594e-01) (4, 2.08810284733772277832e-01) (5, 9.18511226773262023926e-02) (6, -2.31906801462173461914e-01) (7, -3.23037318885326385498e-02) (8, -4.82649169862270355225e-02) (9, 7.71960020065307617188e-01) (10, -3.89827996492385864258e-01) (11, -7.77522921562194824219e-02) (12, 1.65368653833866119385e-02) 
