FANN_FLO_2.1
num_layers=3
learning_rate=0.010000
connection_rate=1.000000
network_type=0
learning_momentum=0.000000
training_algorithm=0
train_error_function=1
train_stop_function=0
cascade_output_change_fraction=0.010000
quickprop_decay=-0.000100
quickprop_mu=1.750000
rprop_increase_factor=1.200000
rprop_decrease_factor=0.500000
rprop_delta_min=0.000000
rprop_delta_max=50.000000
rprop_delta_zero=0.100000
cascade_output_stagnation_epochs=12
cascade_candidate_change_fraction=0.010000
cascade_candidate_stagnation_epochs=12
cascade_max_out_epochs=150
cascade_min_out_epochs=50
cascade_max_cand_epochs=150
cascade_min_cand_epochs=50
cascade_num_candidate_groups=2
bit_fail_limit=3.49999994039535522461e-01
cascade_candidate_limit=1.00000000000000000000e+03
cascade_weight_multiplier=4.00000005960464477539e-01
cascade_activation_functions_count=10
cascade_activation_functions=3 5 7 8 10 11 14 15 16 17 
cascade_activation_steepnesses_count=4
cascade_activation_steepnesses=2.50000000000000000000e-01 5.00000000000000000000e-01 7.50000000000000000000e-01 1.00000000000000000000e+00 
layer_sizes=2 11 2 
scale_included=0
neurons (num_inputs, activation_function, activation_steepness)=(0, 0, 0.00000000000000000000e+00) (0, 0, 0.00000000000000000000e+00) (2, 5, 5.00000000000000000000e-01) (2, 5, 5.00000000000000000000e-01) (2, 5, 5.00000000000000000000e-01) (2, 5, 5.00000000000000000000e-01) (2, 5, 5.00000000000000000000e-01) (2, 5, 5.00000000000000000000e-01) (2, 5, 5.00000000000000000000e-01) (2, 5, 5.00000000000000000000e-01) (2, 5, 5.00000000000000000000e-01) (2, 5, 5.00000000000000000000e-01) (0, 5, 0.00000000000000000000e+00) (11, 0, 5.00000000000000000000e-01) (0, 0, 0.00000000000000000000e+00) 
connections (connected_to_neuron, weight)=(0, -2.87281394004821777344e-01) (1, 7.75052085518836975098e-02) (0, 2.54579710960388183594e+00) (1, 2.73527145385742187500e+00) (0, 1.39426574110984802246e-01) (1, -7.01987683773040771484e-01) (0, 1.27006995677947998047e+00) (1, 1.36740219593048095703e+00) (0, 1.52629268169403076172e+00) (1, 1.67379915714263916016e+00) (0, 3.78679990768432617188e+00) (1, -3.93318581581115722656e+00) (0, 3.24683517217636108398e-01) (1, -2.06827986985445022583e-02) (0, 3.04020643234252929688e-01) (1, -1.29093647003173828125e-01) (0, -1.43572583794593811035e-01) (1, 6.75839245319366455078e-01) (0, 7.14601337909698486328e-01) (1, 5.42559802532196044922e-01) (2, -3.34210097789764404297e-01) (3, 3.04064846038818359375e+00) (4, 2.88654470443725585938e+00) (5, 2.05103421211242675781e+00) (6, 1.88896298408508300781e+00) (7, 4.15796709060668945312e+00) (8, 3.58645170927047729492e-01) (9, 3.95862102508544921875e-01) (10, -2.42405819892883300781e+00) (11, 1.33780837059020996094e+00) (12, 3.22265386581420898438e-01) 
