FANN_FLO_2.1
num_layers=3
learning_rate=0.010000
connection_rate=1.000000
network_type=0
learning_momentum=0.000000
training_algorithm=0
train_error_function=1
train_stop_function=0
cascade_output_change_fraction=0.010000
quickprop_decay=-0.000100
quickprop_mu=1.750000
rprop_increase_factor=1.200000
rprop_decrease_factor=0.500000
rprop_delta_min=0.000000
rprop_delta_max=50.000000
rprop_delta_zero=0.100000
cascade_output_stagnation_epochs=12
cascade_candidate_change_fraction=0.010000
cascade_candidate_stagnation_epochs=12
cascade_max_out_epochs=150
cascade_min_out_epochs=50
cascade_max_cand_epochs=150
cascade_min_cand_epochs=50
cascade_num_candidate_groups=2
bit_fail_limit=3.49999994039535522461e-01
cascade_candidate_limit=1.00000000000000000000e+03
cascade_weight_multiplier=4.00000005960464477539e-01
cascade_activation_functions_count=10
cascade_activation_functions=3 5 7 8 10 11 14 15 16 17 
cascade_activation_steepnesses_count=4
cascade_activation_steepnesses=2.50000000000000000000e-01 5.00000000000000000000e-01 7.50000000000000000000e-01 1.00000000000000000000e+00 
layer_sizes=2 11 2 
scale_included=0
neurons (num_inputs, activation_function, activation_steepness)=(0, 0, 0.00000000000000000000e+00) (0, 0, 0.00000000000000000000e+00) (2, 3, 5.00000000000000000000e-01) (2, 3, 5.00000000000000000000e-01) (2, 3, 5.00000000000000000000e-01) (2, 3, 5.00000000000000000000e-01) (2, 3, 5.00000000000000000000e-01) (2, 3, 5.00000000000000000000e-01) (2, 3, 5.00000000000000000000e-01) (2, 3, 5.00000000000000000000e-01) (2, 3, 5.00000000000000000000e-01) (2, 3, 5.00000000000000000000e-01) (0, 3, 0.00000000000000000000e+00) (11, 0, 5.00000000000000000000e-01) (0, 0, 0.00000000000000000000e+00) 
connections (connected_to_neuron, weight)=(0, -1.94203901290893554688e+00) (1, -1.22677413746714591980e-02) (0, 7.42927789688110351562e-01) (1, -6.05156831443309783936e-02) (0, 1.82925358414649963379e-01) (1, 5.44217117130756378174e-02) (0, -1.21372699737548828125e-01) (1, -7.22237229347229003906e-02) (0, 7.37675309181213378906e-01) (1, 2.21917722374200820923e-02) (0, 1.03640747070312500000e+00) (1, -1.72594375908374786377e-02) (0, 3.97745937108993530273e-01) (1, -5.32409474253654479980e-02) (0, -8.66693019866943359375e-01) (1, 3.11190094798803329468e-02) (0, 8.96279364824295043945e-02) (1, 7.94579926878213882446e-03) (0, 1.36009764671325683594e+00) (1, 2.73148808628320693970e-02) (2, -1.83723449707031250000e+00) (3, 6.36529982089996337891e-01) (4, 8.09238851070404052734e-02) (5, -2.00159966945648193359e-01) (6, 6.22066915035247802734e-01) (7, 8.99256110191345214844e-01) (8, 3.07541549205780029297e-01) (9, -9.19952511787414550781e-01) (10, 5.56295784190297126770e-03) (11, 1.17807185649871826172e+00) (12, -3.82315546274185180664e-01) 
