FANN_FLO_2.1
num_layers=3
learning_rate=0.010000
connection_rate=1.000000
network_type=0
learning_momentum=0.000000
training_algorithm=0
train_error_function=1
train_stop_function=0
cascade_output_change_fraction=0.010000
quickprop_decay=-0.000100
quickprop_mu=1.750000
rprop_increase_factor=1.200000
rprop_decrease_factor=0.500000
rprop_delta_min=0.000000
rprop_delta_max=50.000000
rprop_delta_zero=0.100000
cascade_output_stagnation_epochs=12
cascade_candidate_change_fraction=0.010000
cascade_candidate_stagnation_epochs=12
cascade_max_out_epochs=150
cascade_min_out_epochs=50
cascade_max_cand_epochs=150
cascade_min_cand_epochs=50
cascade_num_candidate_groups=2
bit_fail_limit=3.49999994039535522461e-01
cascade_candidate_limit=1.00000000000000000000e+03
cascade_weight_multiplier=4.00000005960464477539e-01
cascade_activation_functions_count=10
cascade_activation_functions=3 5 7 8 10 11 14 15 16 17 
cascade_activation_steepnesses_count=4
cascade_activation_steepnesses=2.50000000000000000000e-01 5.00000000000000000000e-01 7.50000000000000000000e-01 1.00000000000000000000e+00 
layer_sizes=2 11 2 
scale_included=0
neurons (num_inputs, activation_function, activation_steepness)=(0, 0, 0.00000000000000000000e+00) (0, 0, 0.00000000000000000000e+00) (2, 5, 5.00000000000000000000e-01) (2, 5, 5.00000000000000000000e-01) (2, 5, 5.00000000000000000000e-01) (2, 5, 5.00000000000000000000e-01) (2, 5, 5.00000000000000000000e-01) (2, 5, 5.00000000000000000000e-01) (2, 5, 5.00000000000000000000e-01) (2, 5, 5.00000000000000000000e-01) (2, 5, 5.00000000000000000000e-01) (2, 5, 5.00000000000000000000e-01) (0, 5, 0.00000000000000000000e+00) (11, 0, 5.00000000000000000000e-01) (0, 0, 0.00000000000000000000e+00) 
connections (connected_to_neuron, weight)=(0, -7.30039536952972412109e-01) (1, 4.14627254009246826172e-01) (0, -2.29045897722244262695e-02) (1, -3.40581797063350677490e-02) (0, -6.91489204764366149902e-02) (1, 1.22667610645294189453e-01) (0, 3.44889052212238311768e-02) (1, -9.36385691165924072266e-02) (0, -7.31987282633781433105e-02) (1, 1.07985004782676696777e-01) (0, 8.02360996603965759277e-02) (1, 2.11182162165641784668e-02) (0, 5.29177077114582061768e-02) (1, -4.87232543528079986572e-02) (0, -8.80776643753051757812e-02) (1, 1.06827072799205780029e-01) (0, 1.58711504191160202026e-02) (1, -1.05141788721084594727e-01) (0, 2.01232228428125381470e-02) (1, -1.07716657221317291260e-01) (2, -3.79055351018905639648e-01) (3, -8.48797149956226348877e-03) (4, 1.60154849290847778320e-01) (5, -1.03566057980060577393e-01) (6, 1.13012216985225677490e-01) (7, -2.62040067464113235474e-02) (8, -6.54050484299659729004e-02) (9, 1.29056930541992187500e-01) (10, -1.05336271226406097412e-01) (11, -1.03485837578773498535e-01) (12, 7.20318853855133056641e-01) 
