FANN_FLO_2.1
num_layers=3
learning_rate=0.010000
connection_rate=1.000000
network_type=0
learning_momentum=0.000000
training_algorithm=0
train_error_function=1
train_stop_function=0
cascade_output_change_fraction=0.010000
quickprop_decay=-0.000100
quickprop_mu=1.750000
rprop_increase_factor=1.200000
rprop_decrease_factor=0.500000
rprop_delta_min=0.000000
rprop_delta_max=50.000000
rprop_delta_zero=0.100000
cascade_output_stagnation_epochs=12
cascade_candidate_change_fraction=0.010000
cascade_candidate_stagnation_epochs=12
cascade_max_out_epochs=150
cascade_min_out_epochs=50
cascade_max_cand_epochs=150
cascade_min_cand_epochs=50
cascade_num_candidate_groups=2
bit_fail_limit=3.49999994039535522461e-01
cascade_candidate_limit=1.00000000000000000000e+03
cascade_weight_multiplier=4.00000005960464477539e-01
cascade_activation_functions_count=10
cascade_activation_functions=3 5 7 8 10 11 14 15 16 17 
cascade_activation_steepnesses_count=4
cascade_activation_steepnesses=2.50000000000000000000e-01 5.00000000000000000000e-01 7.50000000000000000000e-01 1.00000000000000000000e+00 
layer_sizes=2 11 2 
scale_included=0
neurons (num_inputs, activation_function, activation_steepness)=(0, 0, 0.00000000000000000000e+00) (0, 0, 0.00000000000000000000e+00) (2, 5, 5.00000000000000000000e-01) (2, 5, 5.00000000000000000000e-01) (2, 5, 5.00000000000000000000e-01) (2, 5, 5.00000000000000000000e-01) (2, 5, 5.00000000000000000000e-01) (2, 5, 5.00000000000000000000e-01) (2, 5, 5.00000000000000000000e-01) (2, 5, 5.00000000000000000000e-01) (2, 5, 5.00000000000000000000e-01) (2, 5, 5.00000000000000000000e-01) (0, 5, 0.00000000000000000000e+00) (11, 0, 5.00000000000000000000e-01) (0, 0, 0.00000000000000000000e+00) 
connections (connected_to_neuron, weight)=(0, -9.04894411563873291016e-01) (1, 2.87361517548561096191e-02) (0, -1.41932690143585205078e+00) (1, -1.15765659138560295105e-02) (0, 1.37189149856567382812e+00) (1, 4.65783290565013885498e-02) (0, -5.98733425140380859375e-01) (1, 7.87723660469055175781e-02) (0, 2.41311043500900268555e-01) (1, 8.81566181778907775879e-02) (0, 5.65303206443786621094e-01) (1, 2.95795798301696777344e-02) (0, -4.08134311437606811523e-01) (1, -7.22976550459861755371e-02) (0, 1.42380207777023315430e-01) (1, -1.21254408732056617737e-02) (0, 5.46693056821823120117e-03) (1, -8.96859019994735717773e-02) (0, -2.83899158239364624023e-01) (1, 3.40747907757759094238e-02) (2, -6.26812756061553955078e-01) (3, -8.96221756935119628906e-01) (4, 8.68134617805480957031e-01) (5, -4.78240609169006347656e-01) (6, 2.21329465508460998535e-01) (7, 4.47693645954132080078e-01) (8, -3.42706888914108276367e-01) (9, 1.41740307211875915527e-01) (10, 3.42113641090691089630e-03) (11, -2.67060905694961547852e-01) (12, -1.87860429286956787109e-02) 
