FANN_FLO_2.1
num_layers=3
learning_rate=0.010000
connection_rate=1.000000
network_type=0
learning_momentum=0.000000
training_algorithm=0
train_error_function=1
train_stop_function=0
cascade_output_change_fraction=0.010000
quickprop_decay=-0.000100
quickprop_mu=1.750000
rprop_increase_factor=1.200000
rprop_decrease_factor=0.500000
rprop_delta_min=0.000000
rprop_delta_max=50.000000
rprop_delta_zero=0.100000
cascade_output_stagnation_epochs=12
cascade_candidate_change_fraction=0.010000
cascade_candidate_stagnation_epochs=12
cascade_max_out_epochs=150
cascade_min_out_epochs=50
cascade_max_cand_epochs=150
cascade_min_cand_epochs=50
cascade_num_candidate_groups=2
bit_fail_limit=3.49999994039535522461e-01
cascade_candidate_limit=1.00000000000000000000e+03
cascade_weight_multiplier=4.00000005960464477539e-01
cascade_activation_functions_count=10
cascade_activation_functions=3 5 7 8 10 11 14 15 16 17 
cascade_activation_steepnesses_count=4
cascade_activation_steepnesses=2.50000000000000000000e-01 5.00000000000000000000e-01 7.50000000000000000000e-01 1.00000000000000000000e+00 
layer_sizes=2 11 2 
scale_included=0
neurons (num_inputs, activation_function, activation_steepness)=(0, 0, 0.00000000000000000000e+00) (0, 0, 0.00000000000000000000e+00) (2, 5, 5.00000000000000000000e-01) (2, 5, 5.00000000000000000000e-01) (2, 5, 5.00000000000000000000e-01) (2, 5, 5.00000000000000000000e-01) (2, 5, 5.00000000000000000000e-01) (2, 5, 5.00000000000000000000e-01) (2, 5, 5.00000000000000000000e-01) (2, 5, 5.00000000000000000000e-01) (2, 5, 5.00000000000000000000e-01) (2, 5, 5.00000000000000000000e-01) (0, 5, 0.00000000000000000000e+00) (11, 0, 5.00000000000000000000e-01) (0, 0, 0.00000000000000000000e+00) 
connections (connected_to_neuron, weight)=(0, 9.05778467655181884766e-01) (1, -6.64948970079421997070e-02) (0, 2.12585508823394775391e-01) (1, -4.32370267808437347412e-02) (0, -6.81528672575950622559e-02) (1, 5.52462302148342132568e-02) (0, 8.79206359386444091797e-01) (1, -6.49939179420471191406e-02) (0, -3.32877576351165771484e-01) (1, 1.77157774567604064941e-01) (0, 5.25532066822052001953e-01) (1, -1.69774040579795837402e-01) (0, -9.80492651462554931641e-01) (1, 1.01579371839761734009e-02) (0, 6.40422642230987548828e-01) (1, -1.93737819790840148926e-01) (0, 3.68136310577392578125e+00) (1, -2.16019392013549804688e+00) (0, -8.62606108188629150391e-01) (1, 7.74775892496109008789e-02) (2, -1.01623451709747314453e+00) (3, -2.13048204779624938965e-01) (4, 8.30913335084915161133e-02) (5, -9.70123946666717529297e-01) (6, 3.87934714555740356445e-01) (7, -5.84232866764068603516e-01) (8, 1.08748769760131835938e+00) (9, -7.41234362125396728516e-01) (10, 2.73742365837097167969e+00) (11, 9.56389605998992919922e-01) (12, 1.86481904983520507812e+00) 
