FANN_FLO_2.1
num_layers=3
learning_rate=0.010000
connection_rate=1.000000
network_type=0
learning_momentum=0.000000
training_algorithm=0
train_error_function=1
train_stop_function=0
cascade_output_change_fraction=0.010000
quickprop_decay=-0.000100
quickprop_mu=1.750000
rprop_increase_factor=1.200000
rprop_decrease_factor=0.500000
rprop_delta_min=0.000000
rprop_delta_max=50.000000
rprop_delta_zero=0.100000
cascade_output_stagnation_epochs=12
cascade_candidate_change_fraction=0.010000
cascade_candidate_stagnation_epochs=12
cascade_max_out_epochs=150
cascade_min_out_epochs=50
cascade_max_cand_epochs=150
cascade_min_cand_epochs=50
cascade_num_candidate_groups=2
bit_fail_limit=3.49999994039535522461e-01
cascade_candidate_limit=1.00000000000000000000e+03
cascade_weight_multiplier=4.00000005960464477539e-01
cascade_activation_functions_count=10
cascade_activation_functions=3 5 7 8 10 11 14 15 16 17 
cascade_activation_steepnesses_count=4
cascade_activation_steepnesses=2.50000000000000000000e-01 5.00000000000000000000e-01 7.50000000000000000000e-01 1.00000000000000000000e+00 
layer_sizes=2 11 2 
scale_included=0
neurons (num_inputs, activation_function, activation_steepness)=(0, 0, 0.00000000000000000000e+00) (0, 0, 0.00000000000000000000e+00) (2, 3, 5.00000000000000000000e-01) (2, 3, 5.00000000000000000000e-01) (2, 3, 5.00000000000000000000e-01) (2, 3, 5.00000000000000000000e-01) (2, 3, 5.00000000000000000000e-01) (2, 3, 5.00000000000000000000e-01) (2, 3, 5.00000000000000000000e-01) (2, 3, 5.00000000000000000000e-01) (2, 3, 5.00000000000000000000e-01) (2, 3, 5.00000000000000000000e-01) (0, 3, 0.00000000000000000000e+00) (11, 0, 5.00000000000000000000e-01) (0, 0, 0.00000000000000000000e+00) 
connections (connected_to_neuron, weight)=(0, 2.19445332884788513184e-01) (1, -7.06744864583015441895e-02) (0, 1.82285833358764648438e+00) (1, 2.39512473344802856445e-02) (0, -3.41984108090400695801e-02) (1, -1.16458855569362640381e-01) (0, 2.90361076593399047852e-01) (1, 2.97333672642707824707e-02) (0, -9.06990945339202880859e-01) (1, -6.25454187393188476562e-02) (0, 2.51308232545852661133e-01) (1, -3.23086269199848175049e-02) (0, -1.59530258178710937500e+00) (1, 2.23398972302675247192e-02) (0, -1.05328381061553955078e+00) (1, 4.25013005733489990234e-02) (0, 2.59617984294891357422e-01) (1, -8.79803672432899475098e-02) (0, 4.43829476833343505859e-01) (1, 9.96018387377262115479e-03) (2, 2.21623867750167846680e-01) (3, 1.76539456844329833984e+00) (4, -3.08002885431051254272e-02) (5, 2.92044281959533691406e-01) (6, -8.85317921638488769531e-01) (7, 2.50799477100372314453e-01) (8, -1.54224848747253417969e+00) (9, -1.02406620979309082031e+00) (10, 2.56190061569213867188e-01) (11, 4.38310056924819946289e-01) (12, 1.32097974419593811035e-01) 
