FANN_FLO_2.1
num_layers=3
learning_rate=0.010000
connection_rate=1.000000
network_type=0
learning_momentum=0.000000
training_algorithm=0
train_error_function=1
train_stop_function=0
cascade_output_change_fraction=0.010000
quickprop_decay=-0.000100
quickprop_mu=1.750000
rprop_increase_factor=1.200000
rprop_decrease_factor=0.500000
rprop_delta_min=0.000000
rprop_delta_max=50.000000
rprop_delta_zero=0.100000
cascade_output_stagnation_epochs=12
cascade_candidate_change_fraction=0.010000
cascade_candidate_stagnation_epochs=12
cascade_max_out_epochs=150
cascade_min_out_epochs=50
cascade_max_cand_epochs=150
cascade_min_cand_epochs=50
cascade_num_candidate_groups=2
bit_fail_limit=3.49999994039535522461e-01
cascade_candidate_limit=1.00000000000000000000e+03
cascade_weight_multiplier=4.00000005960464477539e-01
cascade_activation_functions_count=10
cascade_activation_functions=3 5 7 8 10 11 14 15 16 17 
cascade_activation_steepnesses_count=4
cascade_activation_steepnesses=2.50000000000000000000e-01 5.00000000000000000000e-01 7.50000000000000000000e-01 1.00000000000000000000e+00 
layer_sizes=2 11 2 
scale_included=0
neurons (num_inputs, activation_function, activation_steepness)=(0, 0, 0.00000000000000000000e+00) (0, 0, 0.00000000000000000000e+00) (2, 3, 5.00000000000000000000e-01) (2, 3, 5.00000000000000000000e-01) (2, 3, 5.00000000000000000000e-01) (2, 3, 5.00000000000000000000e-01) (2, 3, 5.00000000000000000000e-01) (2, 3, 5.00000000000000000000e-01) (2, 3, 5.00000000000000000000e-01) (2, 3, 5.00000000000000000000e-01) (2, 3, 5.00000000000000000000e-01) (2, 3, 5.00000000000000000000e-01) (0, 3, 0.00000000000000000000e+00) (11, 0, 5.00000000000000000000e-01) (0, 0, 0.00000000000000000000e+00) 
connections (connected_to_neuron, weight)=(0, -1.81045162677764892578e+00) (1, -1.65475833415985107422e+00) (0, 3.16933584213256835938e+00) (1, -2.07824039459228515625e+00) (0, -1.34183132648468017578e+00) (1, -1.10384178161621093750e+00) (0, -9.90740656852722167969e-01) (1, -6.64499819278717041016e-01) (0, -1.88866055011749267578e+00) (1, -1.73541665077209472656e+00) (0, -1.05466485023498535156e+00) (1, -6.71402752399444580078e-01) (0, -1.91372215747833251953e-01) (1, -1.22717276215553283691e-01) (0, -1.23234307765960693359e+00) (1, -9.47959184646606445312e-01) (0, 7.02801764011383056641e-01) (1, -8.17431151866912841797e-01) (0, -6.17483019828796386719e-01) (1, -2.56402522325515747070e-01) (2, 1.63481664657592773438e+00) (3, 4.70310783386230468750e+00) (4, 1.08343887329101562500e+00) (5, 6.59018158912658691406e-01) (6, 1.72962176799774169922e+00) (7, 7.11971342563629150391e-01) (8, -2.45164722204208374023e-01) (9, 9.48839724063873291016e-01) (10, -4.47017133235931396484e-01) (11, 1.88396334648132324219e-01) (12, -1.92017149925231933594e+00) 
