FANN_FLO_2.1
num_layers=3
learning_rate=0.010000
connection_rate=1.000000
network_type=0
learning_momentum=0.000000
training_algorithm=0
train_error_function=1
train_stop_function=0
cascade_output_change_fraction=0.010000
quickprop_decay=-0.000100
quickprop_mu=1.750000
rprop_increase_factor=1.200000
rprop_decrease_factor=0.500000
rprop_delta_min=0.000000
rprop_delta_max=50.000000
rprop_delta_zero=0.100000
cascade_output_stagnation_epochs=12
cascade_candidate_change_fraction=0.010000
cascade_candidate_stagnation_epochs=12
cascade_max_out_epochs=150
cascade_min_out_epochs=50
cascade_max_cand_epochs=150
cascade_min_cand_epochs=50
cascade_num_candidate_groups=2
bit_fail_limit=3.49999994039535522461e-01
cascade_candidate_limit=1.00000000000000000000e+03
cascade_weight_multiplier=4.00000005960464477539e-01
cascade_activation_functions_count=10
cascade_activation_functions=3 5 7 8 10 11 14 15 16 17 
cascade_activation_steepnesses_count=4
cascade_activation_steepnesses=2.50000000000000000000e-01 5.00000000000000000000e-01 7.50000000000000000000e-01 1.00000000000000000000e+00 
layer_sizes=2 11 2 
scale_included=0
neurons (num_inputs, activation_function, activation_steepness)=(0, 0, 0.00000000000000000000e+00) (0, 0, 0.00000000000000000000e+00) (2, 14, 5.00000000000000000000e-01) (2, 14, 5.00000000000000000000e-01) (2, 14, 5.00000000000000000000e-01) (2, 14, 5.00000000000000000000e-01) (2, 14, 5.00000000000000000000e-01) (2, 14, 5.00000000000000000000e-01) (2, 14, 5.00000000000000000000e-01) (2, 14, 5.00000000000000000000e-01) (2, 14, 5.00000000000000000000e-01) (2, 14, 5.00000000000000000000e-01) (0, 14, 0.00000000000000000000e+00) (11, 0, 5.00000000000000000000e-01) (0, 0, 0.00000000000000000000e+00) 
connections (connected_to_neuron, weight)=(0, -7.96977579593658447266e-01) (1, -1.60268582403659820557e-02) (0, 7.19394803047180175781e-01) (1, -5.94836771488189697266e-02) (0, 3.74110639095306396484e-01) (1, -8.85324105620384216309e-02) (0, 8.72047841548919677734e-02) (1, -3.12539711594581604004e-02) (0, 1.75253339111804962158e-02) (1, -6.45197108387947082520e-02) (0, -9.68189418315887451172e-01) (1, 9.17628221213817596436e-03) (0, 3.26328605413436889648e-01) (1, 7.98648074269294738770e-02) (0, -7.63933420181274414062e-01) (1, 4.21880856156349182129e-02) (0, -3.09666037559509277344e-01) (1, -5.23364776745438575745e-03) (0, -7.43770122528076171875e-01) (1, 5.50172403454780578613e-02) (2, -8.17049026489257812500e-01) (3, 7.37997353076934814453e-01) (4, 3.78009051084518432617e-01) (5, 8.61820727586746215820e-02) (6, 2.43144705891609191895e-02) (7, -1.00641453266143798828e+00) (8, 3.20417851209640502930e-01) (9, -7.79307186603546142578e-01) (10, -3.06640535593032836914e-01) (11, -7.56119430065155029297e-01) (12, 5.97244389355182647705e-02) 
