FANN_FLO_2.1
num_layers=3
learning_rate=0.010000
connection_rate=1.000000
network_type=0
learning_momentum=0.000000
training_algorithm=0
train_error_function=1
train_stop_function=0
cascade_output_change_fraction=0.010000
quickprop_decay=-0.000100
quickprop_mu=1.750000
rprop_increase_factor=1.200000
rprop_decrease_factor=0.500000
rprop_delta_min=0.000000
rprop_delta_max=50.000000
rprop_delta_zero=0.100000
cascade_output_stagnation_epochs=12
cascade_candidate_change_fraction=0.010000
cascade_candidate_stagnation_epochs=12
cascade_max_out_epochs=150
cascade_min_out_epochs=50
cascade_max_cand_epochs=150
cascade_min_cand_epochs=50
cascade_num_candidate_groups=2
bit_fail_limit=3.49999994039535522461e-01
cascade_candidate_limit=1.00000000000000000000e+03
cascade_weight_multiplier=4.00000005960464477539e-01
cascade_activation_functions_count=10
cascade_activation_functions=3 5 7 8 10 11 14 15 16 17 
cascade_activation_steepnesses_count=4
cascade_activation_steepnesses=2.50000000000000000000e-01 5.00000000000000000000e-01 7.50000000000000000000e-01 1.00000000000000000000e+00 
layer_sizes=2 11 2 
scale_included=0
neurons (num_inputs, activation_function, activation_steepness)=(0, 0, 0.00000000000000000000e+00) (0, 0, 0.00000000000000000000e+00) (2, 3, 5.00000000000000000000e-01) (2, 3, 5.00000000000000000000e-01) (2, 3, 5.00000000000000000000e-01) (2, 3, 5.00000000000000000000e-01) (2, 3, 5.00000000000000000000e-01) (2, 3, 5.00000000000000000000e-01) (2, 3, 5.00000000000000000000e-01) (2, 3, 5.00000000000000000000e-01) (2, 3, 5.00000000000000000000e-01) (2, 3, 5.00000000000000000000e-01) (0, 3, 0.00000000000000000000e+00) (11, 0, 5.00000000000000000000e-01) (0, 0, 0.00000000000000000000e+00) 
connections (connected_to_neuron, weight)=(0, -1.40963816642761230469e+00) (1, -1.20508980751037597656e+00) (0, -1.59938681125640869141e+00) (1, -1.43858182430267333984e+00) (0, 6.82766139507293701172e-02) (1, -9.87394005060195922852e-02) (0, -9.04088020324707031250e-01) (1, -5.40249764919281005859e-01) (0, 3.15991187095642089844e+00) (1, -2.06396985054016113281e+00) (0, -1.11728310585021972656e+00) (1, -8.41120600700378417969e-01) (0, -5.84631204605102539062e-01) (1, -3.35338741540908813477e-01) (0, -2.20291763544082641602e-01) (1, -1.67268529534339904785e-01) (0, -1.28716611862182617188e+00) (1, -1.04417204856872558594e+00) (0, -1.91821408271789550781e+00) (1, -1.78414452075958251953e+00) (2, 1.22255289554595947266e+00) (3, 1.46012008190155029297e+00) (4, -4.61373507976531982422e-01) (5, 5.98574161529541015625e-01) (6, 4.68122673034667968750e+00) (7, 8.60588848590850830078e-01) (8, 2.36443132162094116211e-01) (9, -1.57895296812057495117e-01) (10, 1.08441615104675292969e+00) (11, 1.80053460597991943359e+00) (12, -1.96288168430328369141e+00) 
