FANN_FLO_2.1
num_layers=3
learning_rate=0.010000
connection_rate=1.000000
network_type=0
learning_momentum=0.000000
training_algorithm=0
train_error_function=1
train_stop_function=0
cascade_output_change_fraction=0.010000
quickprop_decay=-0.000100
quickprop_mu=1.750000
rprop_increase_factor=1.200000
rprop_decrease_factor=0.500000
rprop_delta_min=0.000000
rprop_delta_max=50.000000
rprop_delta_zero=0.100000
cascade_output_stagnation_epochs=12
cascade_candidate_change_fraction=0.010000
cascade_candidate_stagnation_epochs=12
cascade_max_out_epochs=150
cascade_min_out_epochs=50
cascade_max_cand_epochs=150
cascade_min_cand_epochs=50
cascade_num_candidate_groups=2
bit_fail_limit=3.49999994039535522461e-01
cascade_candidate_limit=1.00000000000000000000e+03
cascade_weight_multiplier=4.00000005960464477539e-01
cascade_activation_functions_count=10
cascade_activation_functions=3 5 7 8 10 11 14 15 16 17 
cascade_activation_steepnesses_count=4
cascade_activation_steepnesses=2.50000000000000000000e-01 5.00000000000000000000e-01 7.50000000000000000000e-01 1.00000000000000000000e+00 
layer_sizes=2 11 2 
scale_included=0
neurons (num_inputs, activation_function, activation_steepness)=(0, 0, 0.00000000000000000000e+00) (0, 0, 0.00000000000000000000e+00) (2, 14, 5.00000000000000000000e-01) (2, 14, 5.00000000000000000000e-01) (2, 14, 5.00000000000000000000e-01) (2, 14, 5.00000000000000000000e-01) (2, 14, 5.00000000000000000000e-01) (2, 14, 5.00000000000000000000e-01) (2, 14, 5.00000000000000000000e-01) (2, 14, 5.00000000000000000000e-01) (2, 14, 5.00000000000000000000e-01) (2, 14, 5.00000000000000000000e-01) (0, 14, 0.00000000000000000000e+00) (11, 0, 5.00000000000000000000e-01) (0, 0, 0.00000000000000000000e+00) 
connections (connected_to_neuron, weight)=(0, -7.51584186218678951263e-04) (1, -1.02652776986360549927e-02) (0, 2.91707701981067657471e-02) (1, 1.20357386767864227295e-01) (0, -4.69475574791431427002e-02) (1, 3.89759428799152374268e-02) (0, -7.23214745521545410156e-02) (1, -1.15807488560676574707e-01) (0, 4.98458817601203918457e-02) (1, 1.36331915855407714844e-01) (0, 1.77396327257156372070e-01) (1, 2.39957213401794433594e-01) (0, 7.92770273983478546143e-03) (1, -9.28857550024986267090e-02) (0, -8.69758501648902893066e-02) (1, -2.05934554338455200195e-01) (0, 1.77813753485679626465e-01) (1, 1.65752887725830078125e-01) (0, 1.42125323414802551270e-01) (1, 2.20909699797630310059e-01) (2, 1.53993687126785516739e-03) (3, 1.04683637619018554688e-01) (4, 7.88295269012451171875e-03) (5, -1.16944625973701477051e-01) (6, 1.13845579326152801514e-01) (7, 2.36985519528388977051e-01) (8, -6.52302354574203491211e-02) (9, -1.83961302042007446289e-01) (10, 2.02544972300529479980e-01) (11, 2.08783432841300964355e-01) (12, 5.86756944656372070312e-01) 
