FANN_FLO_2.1
num_layers=3
learning_rate=0.010000
connection_rate=1.000000
network_type=0
learning_momentum=0.000000
training_algorithm=0
train_error_function=1
train_stop_function=0
cascade_output_change_fraction=0.010000
quickprop_decay=-0.000100
quickprop_mu=1.750000
rprop_increase_factor=1.200000
rprop_decrease_factor=0.500000
rprop_delta_min=0.000000
rprop_delta_max=50.000000
rprop_delta_zero=0.100000
cascade_output_stagnation_epochs=12
cascade_candidate_change_fraction=0.010000
cascade_candidate_stagnation_epochs=12
cascade_max_out_epochs=150
cascade_min_out_epochs=50
cascade_max_cand_epochs=150
cascade_min_cand_epochs=50
cascade_num_candidate_groups=2
bit_fail_limit=3.49999994039535522461e-01
cascade_candidate_limit=1.00000000000000000000e+03
cascade_weight_multiplier=4.00000005960464477539e-01
cascade_activation_functions_count=10
cascade_activation_functions=3 5 7 8 10 11 14 15 16 17 
cascade_activation_steepnesses_count=4
cascade_activation_steepnesses=2.50000000000000000000e-01 5.00000000000000000000e-01 7.50000000000000000000e-01 1.00000000000000000000e+00 
layer_sizes=2 11 2 
scale_included=0
neurons (num_inputs, activation_function, activation_steepness)=(0, 0, 0.00000000000000000000e+00) (0, 0, 0.00000000000000000000e+00) (2, 14, 5.00000000000000000000e-01) (2, 14, 5.00000000000000000000e-01) (2, 14, 5.00000000000000000000e-01) (2, 14, 5.00000000000000000000e-01) (2, 14, 5.00000000000000000000e-01) (2, 14, 5.00000000000000000000e-01) (2, 14, 5.00000000000000000000e-01) (2, 14, 5.00000000000000000000e-01) (2, 14, 5.00000000000000000000e-01) (2, 14, 5.00000000000000000000e-01) (0, 14, 0.00000000000000000000e+00) (11, 0, 5.00000000000000000000e-01) (0, 0, 0.00000000000000000000e+00) 
connections (connected_to_neuron, weight)=(0, -8.41466709971427917480e-02) (1, -2.00994104146957397461e-01) (0, 2.06453442573547363281e-01) (1, 2.93184131383895874023e-01) (0, 6.04243278503417968750e-02) (1, 2.52509284764528274536e-02) (0, 5.54465502500534057617e-02) (1, 5.78038431704044342041e-02) (0, -2.56264414638280868530e-02) (1, 7.49150663614273071289e-02) (0, -2.22239419817924499512e-02) (1, -1.58678099513053894043e-01) (0, 1.03013001382350921631e-01) (1, 4.28185276687145233154e-02) (0, -3.90129201114177703857e-02) (1, -1.54896359890699386597e-02) (0, 1.50669053196907043457e-01) (1, 1.36696606874465942383e-01) (0, 1.30174115300178527832e-01) (1, 1.88122615218162536621e-01) (2, -1.74213558435440063477e-01) (3, 2.70516872406005859375e-01) (4, 4.77741993963718414307e-02) (5, 5.97989559173583984375e-02) (6, 3.71556915342807769775e-02) (7, -1.27670481801033020020e-01) (8, 9.08396914601325988770e-02) (9, -3.43790315091609954834e-02) (10, 1.67061403393745422363e-01) (11, 1.87462717294692993164e-01) (12, 5.95693826675415039062e-01) 
