FANN_FLO_2.1
num_layers=3
learning_rate=0.010000
connection_rate=1.000000
network_type=0
learning_momentum=0.000000
training_algorithm=0
train_error_function=1
train_stop_function=0
cascade_output_change_fraction=0.010000
quickprop_decay=-0.000100
quickprop_mu=1.750000
rprop_increase_factor=1.200000
rprop_decrease_factor=0.500000
rprop_delta_min=0.000000
rprop_delta_max=50.000000
rprop_delta_zero=0.100000
cascade_output_stagnation_epochs=12
cascade_candidate_change_fraction=0.010000
cascade_candidate_stagnation_epochs=12
cascade_max_out_epochs=150
cascade_min_out_epochs=50
cascade_max_cand_epochs=150
cascade_min_cand_epochs=50
cascade_num_candidate_groups=2
bit_fail_limit=3.49999994039535522461e-01
cascade_candidate_limit=1.00000000000000000000e+03
cascade_weight_multiplier=4.00000005960464477539e-01
cascade_activation_functions_count=10
cascade_activation_functions=3 5 7 8 10 11 14 15 16 17 
cascade_activation_steepnesses_count=4
cascade_activation_steepnesses=2.50000000000000000000e-01 5.00000000000000000000e-01 7.50000000000000000000e-01 1.00000000000000000000e+00 
layer_sizes=2 11 2 
scale_included=0
neurons (num_inputs, activation_function, activation_steepness)=(0, 0, 0.00000000000000000000e+00) (0, 0, 0.00000000000000000000e+00) (2, 14, 5.00000000000000000000e-01) (2, 14, 5.00000000000000000000e-01) (2, 14, 5.00000000000000000000e-01) (2, 14, 5.00000000000000000000e-01) (2, 14, 5.00000000000000000000e-01) (2, 14, 5.00000000000000000000e-01) (2, 14, 5.00000000000000000000e-01) (2, 14, 5.00000000000000000000e-01) (2, 14, 5.00000000000000000000e-01) (2, 14, 5.00000000000000000000e-01) (0, 14, 0.00000000000000000000e+00) (11, 0, 5.00000000000000000000e-01) (0, 0, 0.00000000000000000000e+00) 
connections (connected_to_neuron, weight)=(0, -2.11115598678588867188e+00) (1, 2.08477929234504699707e-01) (0, -1.48553097248077392578e+00) (1, -3.49701255559921264648e-01) (0, -2.09956479072570800781e+00) (1, 1.65824770927429199219e-01) (0, -2.08503365516662597656e+00) (1, 1.34596988558769226074e-01) (0, 1.91225790977478027344e+00) (1, -2.34518498182296752930e-02) (0, -2.03052353858947753906e+00) (1, 1.43994972109794616699e-01) (0, -1.53176534175872802734e+00) (1, 3.83424684405326843262e-02) (0, 1.85543072223663330078e+00) (1, 1.87374446541070938110e-02) (0, -1.98049747943878173828e+00) (1, 1.11284814774990081787e-01) (0, 2.08522605895996093750e+00) (1, -1.26443892717361450195e-01) (2, -9.76687967777252197266e-01) (3, 4.19027246534824371338e-02) (4, -9.37107741832733154297e-01) (5, -7.98844814300537109375e-01) (6, 2.15861752629280090332e-01) (7, -3.96419972181320190430e-01) (8, -1.40777647495269775391e+00) (9, 1.62005901336669921875e-01) (10, -2.76548624038696289062e-01) (11, 8.35800409317016601562e-01) (12, 3.78385752439498901367e-01) 
