FANN_FLO_2.1
num_layers=3
learning_rate=0.010000
connection_rate=1.000000
network_type=0
learning_momentum=0.000000
training_algorithm=0
train_error_function=1
train_stop_function=0
cascade_output_change_fraction=0.010000
quickprop_decay=-0.000100
quickprop_mu=1.750000
rprop_increase_factor=1.200000
rprop_decrease_factor=0.500000
rprop_delta_min=0.000000
rprop_delta_max=50.000000
rprop_delta_zero=0.100000
cascade_output_stagnation_epochs=12
cascade_candidate_change_fraction=0.010000
cascade_candidate_stagnation_epochs=12
cascade_max_out_epochs=150
cascade_min_out_epochs=50
cascade_max_cand_epochs=150
cascade_min_cand_epochs=50
cascade_num_candidate_groups=2
bit_fail_limit=3.49999994039535522461e-01
cascade_candidate_limit=1.00000000000000000000e+03
cascade_weight_multiplier=4.00000005960464477539e-01
cascade_activation_functions_count=10
cascade_activation_functions=3 5 7 8 10 11 14 15 16 17 
cascade_activation_steepnesses_count=4
cascade_activation_steepnesses=2.50000000000000000000e-01 5.00000000000000000000e-01 7.50000000000000000000e-01 1.00000000000000000000e+00 
layer_sizes=2 11 2 
scale_included=0
neurons (num_inputs, activation_function, activation_steepness)=(0, 0, 0.00000000000000000000e+00) (0, 0, 0.00000000000000000000e+00) (2, 14, 5.00000000000000000000e-01) (2, 14, 5.00000000000000000000e-01) (2, 14, 5.00000000000000000000e-01) (2, 14, 5.00000000000000000000e-01) (2, 14, 5.00000000000000000000e-01) (2, 14, 5.00000000000000000000e-01) (2, 14, 5.00000000000000000000e-01) (2, 14, 5.00000000000000000000e-01) (2, 14, 5.00000000000000000000e-01) (2, 14, 5.00000000000000000000e-01) (0, 14, 0.00000000000000000000e+00) (11, 0, 5.00000000000000000000e-01) (0, 0, 0.00000000000000000000e+00) 
connections (connected_to_neuron, weight)=(0, -1.78727209568023681641e+00) (1, 2.14430183172225952148e-01) (0, 1.81877434253692626953e+00) (1, -1.73549473285675048828e-01) (0, -5.79045377671718597412e-02) (1, 9.11592599004507064819e-03) (0, -1.80675947666168212891e+00) (1, 9.36265736818313598633e-02) (0, 1.65612232685089111328e+00) (1, -3.66781614720821380615e-02) (0, 1.81025207042694091797e+00) (1, -1.68513685464859008789e-01) (0, 1.80223774909973144531e+00) (1, -1.31664812564849853516e-01) (0, -1.75007510185241699219e+00) (1, 8.26100781559944152832e-02) (0, 1.81391930580139160156e+00) (1, -1.80615603923797607422e-01) (0, -1.69370090961456298828e+00) (1, -1.64059922099113464355e-02) (2, -5.02480447292327880859e-01) (3, 7.84395515918731689453e-01) (4, -5.66946528851985931396e-02) (5, -8.88320505619049072266e-01) (6, 2.06251174211502075195e-01) (7, 7.20553517341613769531e-01) (8, 7.32024848461151123047e-01) (9, -5.06181776523590087891e-01) (10, 7.25796103477478027344e-01) (11, -1.33181822299957275391e+00) (12, 3.60660046339035034180e-01) 
