FANN_FLO_2.1
num_layers=3
learning_rate=0.010000
connection_rate=1.000000
network_type=0
learning_momentum=0.000000
training_algorithm=0
train_error_function=1
train_stop_function=0
cascade_output_change_fraction=0.010000
quickprop_decay=-0.000100
quickprop_mu=1.750000
rprop_increase_factor=1.200000
rprop_decrease_factor=0.500000
rprop_delta_min=0.000000
rprop_delta_max=50.000000
rprop_delta_zero=0.100000
cascade_output_stagnation_epochs=12
cascade_candidate_change_fraction=0.010000
cascade_candidate_stagnation_epochs=12
cascade_max_out_epochs=150
cascade_min_out_epochs=50
cascade_max_cand_epochs=150
cascade_min_cand_epochs=50
cascade_num_candidate_groups=2
bit_fail_limit=3.49999994039535522461e-01
cascade_candidate_limit=1.00000000000000000000e+03
cascade_weight_multiplier=4.00000005960464477539e-01
cascade_activation_functions_count=10
cascade_activation_functions=3 5 7 8 10 11 14 15 16 17 
cascade_activation_steepnesses_count=4
cascade_activation_steepnesses=2.50000000000000000000e-01 5.00000000000000000000e-01 7.50000000000000000000e-01 1.00000000000000000000e+00 
layer_sizes=2 11 2 
scale_included=0
neurons (num_inputs, activation_function, activation_steepness)=(0, 0, 0.00000000000000000000e+00) (0, 0, 0.00000000000000000000e+00) (2, 3, 5.00000000000000000000e-01) (2, 3, 5.00000000000000000000e-01) (2, 3, 5.00000000000000000000e-01) (2, 3, 5.00000000000000000000e-01) (2, 3, 5.00000000000000000000e-01) (2, 3, 5.00000000000000000000e-01) (2, 3, 5.00000000000000000000e-01) (2, 3, 5.00000000000000000000e-01) (2, 3, 5.00000000000000000000e-01) (2, 3, 5.00000000000000000000e-01) (0, 3, 0.00000000000000000000e+00) (11, 0, 5.00000000000000000000e-01) (0, 0, 0.00000000000000000000e+00) 
connections (connected_to_neuron, weight)=(0, 6.18707478046417236328e-01) (1, -1.38209417462348937988e-01) (0, 6.70552670955657958984e-01) (1, -1.02752232551574707031e+00) (0, -7.95060873031616210938e-01) (1, -5.08843898773193359375e-01) (0, 7.97982990741729736328e-01) (1, -1.31674242019653320312e+00) (0, 2.03914093971252441406e+00) (1, -2.34712290763854980469e+00) (0, 6.15817666053771972656e-01) (1, -2.42090210318565368652e-01) (0, -7.52187788486480712891e-01) (1, -3.85711371898651123047e-01) (0, 5.98917722702026367188e-01) (1, -2.89832502603530883789e-01) (0, 6.08239293098449707031e-01) (1, -2.04096928238868713379e-01) (0, -8.84469509124755859375e-01) (1, -6.97543859481811523438e-01) (2, 2.56084585189819335938e+00) (3, 3.37455320358276367188e+00) (4, -3.95553302764892578125e+00) (5, 3.65026879310607910156e+00) (6, 3.70310282707214355469e+00) (7, 1.94137966632843017578e+00) (8, -2.25235009193420410156e+00) (9, 3.11345338821411132812e+00) (10, 2.91837048530578613281e+00) (11, -4.58789682388305664062e+00) (12, -2.88933372497558593750e+00) 
